digraph Tree {
node [shape=box, style="filled, rounded", color="black", fontname=helvetica] ;
edge [fontname=helvetica] ;
0 [label=<koi_fpflag_ss &le; 0.5<br/>gini = 0.649<br/>samples = 7650<br/>value = [3339, 1955, 2356]>, fillcolor="#fae8da"] ;
1 [label=<koi_fpflag_nt &le; 0.5<br/>gini = 0.662<br/>samples = 6078<br/>value = [1781, 1955, 2342]>, fillcolor="#f3ecfd"] ;
0 -> 1 [labeldistance=2.5, labelangle=45, headlabel="True"] ;
2 [label=<koi_fpflag_co &le; 0.5<br/>gini = 0.622<br/>samples = 5149<br/>value = [856, 1954, 2339]>, fillcolor="#f0e7fc"] ;
1 -> 2 ;
3 [label=<koi_period &le; 4.527<br/>gini = 0.531<br/>samples = 4455<br/>value = [162, 1954, 2339]>, fillcolor="#ece1fb"] ;
2 -> 3 ;
4 [label=<koi_fpflag_ec &le; 0.5<br/>gini = 0.514<br/>samples = 3796<br/>value = [127, 1474, 2195]>, fillcolor="#d8c2f7"] ;
3 -> 4 ;
5 [label=<koi_count &le; 2.5<br/>gini = 0.498<br/>samples = 3731<br/>value = [62, 1474, 2195]>, fillcolor="#d7c0f7"] ;
4 -> 5 ;
6 [label=<koi_time0 &le; 14.714<br/>gini = 0.516<br/>samples = 2879<br/>value = [59, 1291, 1529]>, fillcolor="#ece1fb"] ;
5 -> 6 ;
7 [label=<gini = 0.517<br/>samples = 2250<br/>value = [40, 1122, 1088]>, fillcolor="#f9fefb"] ;
6 -> 7 ;
8 [label=<gini = 0.435<br/>samples = 629<br/>value = [19, 169, 441]>, fillcolor="#b48af0"] ;
6 -> 8 ;
9 [label=<koi_time0 &le; 14.714<br/>gini = 0.343<br/>samples = 852<br/>value = [3, 183, 666]>, fillcolor="#a470ec"] ;
5 -> 9 ;
10 [label=<gini = 0.383<br/>samples = 571<br/>value = [1, 146, 424]>, fillcolor="#ad7dee"] ;
9 -> 10 ;
11 [label=<gini = 0.241<br/>samples = 281<br/>value = [2, 37, 242]>, fillcolor="#9559e9"] ;
9 -> 11 ;
12 [label=<gini = 0.0<br/>samples = 65<br/>value = [65, 0, 0]>, fillcolor="#e58139"] ;
4 -> 12 ;
13 [label=<koi_count &le; 1.5<br/>gini = 0.419<br/>samples = 659<br/>value = [35, 480, 144]>, fillcolor="#7eeead"] ;
3 -> 13 ;
14 [label=<koi_period &le; 5.304<br/>gini = 0.338<br/>samples = 509<br/>value = [32, 407, 70]>, fillcolor="#67eb9e"] ;
13 -> 14 ;
15 [label=<koi_kepmag &le; 13.966<br/>gini = 0.483<br/>samples = 213<br/>value = [18, 143, 52]>, fillcolor="#8ff0b8"] ;
14 -> 15 ;
16 [label=<gini = 0.321<br/>samples = 85<br/>value = [5, 69, 11]>, fillcolor="#64eb9c"] ;
15 -> 16 ;
17 [label=<gini = 0.553<br/>samples = 128<br/>value = [13, 74, 41]>, fillcolor="#b4f5cf"] ;
15 -> 17 ;
18 [label=<koi_fpflag_ec &le; 0.5<br/>gini = 0.199<br/>samples = 296<br/>value = [14, 264, 18]>, fillcolor="#50e890"] ;
14 -> 18 ;
19 [label=<gini = 0.188<br/>samples = 294<br/>value = [12, 264, 18]>, fillcolor="#4fe88f"] ;
18 -> 19 ;
20 [label=<gini = 0.0<br/>samples = 2<br/>value = [2, 0, 0]>, fillcolor="#e58139"] ;
18 -> 20 ;
21 [label=<koi_period &le; 5.81<br/>gini = 0.519<br/>samples = 150<br/>value = [3, 73, 74]>, fillcolor="#fdfcff"] ;
13 -> 21 ;
22 [label=<dec &le; 42.243<br/>gini = 0.508<br/>samples = 127<br/>value = [2, 55, 70]>, fillcolor="#e5d6fa"] ;
21 -> 22 ;
23 [label=<gini = 0.504<br/>samples = 39<br/>value = [1, 23, 15]>, fillcolor="#bdf6d5"] ;
22 -> 23 ;
24 [label=<gini = 0.477<br/>samples = 88<br/>value = [1, 32, 55]>, fillcolor="#cbaef4"] ;
22 -> 24 ;
25 [label=<gini = 0.355<br/>samples = 23<br/>value = [1, 18, 4]>, fillcolor="#6deca2"] ;
21 -> 25 ;
26 [label=<gini = 0.0<br/>samples = 694<br/>value = [694, 0, 0]>, fillcolor="#e58139"] ;
2 -> 26 ;
27 [label=<koi_count &le; 3.5<br/>gini = 0.009<br/>samples = 929<br/>value = [925, 1, 3]>, fillcolor="#e5823a"] ;
1 -> 27 ;
28 [label=<koi_kepmag &le; 17.098<br/>gini = 0.004<br/>samples = 908<br/>value = [906, 0, 2]>, fillcolor="#e58139"] ;
27 -> 28 ;
29 [label=<dec &le; 48.28<br/>gini = 0.002<br/>samples = 900<br/>value = [899, 0, 1]>, fillcolor="#e58139"] ;
28 -> 29 ;
30 [label=<gini = 0.0<br/>samples = 848<br/>value = [848, 0, 0]>, fillcolor="#e58139"] ;
29 -> 30 ;
31 [label=<gini = 0.038<br/>samples = 52<br/>value = [51, 0, 1]>, fillcolor="#e6833d"] ;
29 -> 31 ;
32 [label=<gini = 0.219<br/>samples = 8<br/>value = [7, 0, 1]>, fillcolor="#e99355"] ;
28 -> 32 ;
33 [label=<gini = 0.177<br/>samples = 21<br/>value = [19, 1, 1]>, fillcolor="#e88e4d"] ;
27 -> 33 ;
34 [label=<koi_time0 &le; 14.714<br/>gini = 0.018<br/>samples = 1572<br/>value = [1558, 0, 14]>, fillcolor="#e5823b"] ;
0 -> 34 [labeldistance=2.5, labelangle=-45, headlabel="False"] ;
35 [label=<gini = 0.375<br/>samples = 4<br/>value = [1, 0, 3]>, fillcolor="#ab7bee"] ;
34 -> 35 ;
36 [label=<dec &le; 47.813<br/>gini = 0.014<br/>samples = 1568<br/>value = [1557, 0, 11]>, fillcolor="#e5823a"] ;
34 -> 36 ;
37 [label=<koi_kepmag &le; 14.467<br/>gini = 0.009<br/>samples = 1372<br/>value = [1366, 0, 6]>, fillcolor="#e5823a"] ;
36 -> 37 ;
38 [label=<koi_kepmag &le; 14.463<br/>gini = 0.019<br/>samples = 611<br/>value = [605, 0, 6]>, fillcolor="#e5823b"] ;
37 -> 38 ;
39 [label=<ra &le; 294.196<br/>gini = 0.016<br/>samples = 610<br/>value = [605, 0, 5]>, fillcolor="#e5823b"] ;
38 -> 39 ;
40 [label=<ra &le; 294.185<br/>gini = 0.029<br/>samples = 342<br/>value = [337, 0, 5]>, fillcolor="#e5833c"] ;
39 -> 40 ;
41 [label=<gini = 0.023<br/>samples = 341<br/>value = [337, 0, 4]>, fillcolor="#e5823b"] ;
40 -> 41 ;
42 [label=<gini = 0.0<br/>samples = 1<br/>value = [0, 0, 1]>, fillcolor="#8139e5"] ;
40 -> 42 ;
43 [label=<gini = 0.0<br/>samples = 268<br/>value = [268, 0, 0]>, fillcolor="#e58139"] ;
39 -> 43 ;
44 [label=<gini = 0.0<br/>samples = 1<br/>value = [0, 0, 1]>, fillcolor="#8139e5"] ;
38 -> 44 ;
45 [label=<gini = 0.0<br/>samples = 761<br/>value = [761, 0, 0]>, fillcolor="#e58139"] ;
37 -> 45 ;
46 [label=<dec &le; 47.815<br/>gini = 0.05<br/>samples = 196<br/>value = [191, 0, 5]>, fillcolor="#e6843e"] ;
36 -> 46 ;
47 [label=<gini = 0.0<br/>samples = 1<br/>value = [0, 0, 1]>, fillcolor="#8139e5"] ;
46 -> 47 ;
48 [label=<dec &le; 47.876<br/>gini = 0.04<br/>samples = 195<br/>value = [191, 0, 4]>, fillcolor="#e6843d"] ;
46 -> 48 ;
49 [label=<gini = 0.444<br/>samples = 3<br/>value = [2, 0, 1]>, fillcolor="#f2c09c"] ;
48 -> 49 ;
50 [label=<koi_kepmag &le; 14.157<br/>gini = 0.031<br/>samples = 192<br/>value = [189, 0, 3]>, fillcolor="#e5833c"] ;
48 -> 50 ;
51 [label=<koi_kepmag &le; 14.115<br/>gini = 0.081<br/>samples = 71<br/>value = [68, 0, 3]>, fillcolor="#e68742"] ;
50 -> 51 ;
52 [label=<gini = 0.056<br/>samples = 70<br/>value = [68, 0, 2]>, fillcolor="#e6853f"] ;
51 -> 52 ;
53 [label=<gini = 0.0<br/>samples = 1<br/>value = [0, 0, 1]>, fillcolor="#8139e5"] ;
51 -> 53 ;
54 [label=<gini = 0.0<br/>samples = 121<br/>value = [121, 0, 0]>, fillcolor="#e58139"] ;
50 -> 54 ;
}